digraph Tree {
node [shape=box, style="filled, rounded", color="black", fontname=helvetica] ;
edge [fontname=helvetica] ;
0 [label="Sex <= 0.5\ngini = 0.472\nsamples = 711\nvalue = [440, 271]\nclass = Died", fillcolor="#f5cfb3"] ;
1 [label="Fare <= 26.269\ngini = 0.316\nsamples = 472\nvalue = [379, 93]\nclass = Died", fillcolor="#eba06a"] ;
0 -> 1 [labeldistance=2.5, labelangle=45, headlabel="True"] ;
2 [label="Age <= 13.5\ngini = 0.232\nsamples = 336\nvalue = [291, 45]\nclass = Died", fillcolor="#e99458"] ;
1 -> 2 ;
3 [label="gini = 0.26\nsamples = 13\nvalue = [2, 11]\nclass = Survived", fillcolor="#5dafea"] ;
2 -> 3 ;
4 [label="gini = 0.188\nsamples = 323\nvalue = [289, 34]\nclass = Died", fillcolor="#e89050"] ;
2 -> 4 ;
5 [label="PassengerId <= 507.0\ngini = 0.457\nsamples = 136\nvalue = [88, 48]\nclass = Died", fillcolor="#f3c6a5"] ;
1 -> 5 ;
6 [label="gini = 0.329\nsamples = 77\nvalue = [61, 16]\nclass = Died", fillcolor="#eca26d"] ;
5 -> 6 ;
7 [label="gini = 0.496\nsamples = 59\nvalue = [27, 32]\nclass = Survived", fillcolor="#e0f0fb"] ;
5 -> 7 ;
8 [label="Pclass <= 2.5\ngini = 0.38\nsamples = 239\nvalue = [61, 178]\nclass = Survived", fillcolor="#7dbfee"] ;
0 -> 8 [labeldistance=2.5, labelangle=-45, headlabel="False"] ;
9 [label="Fare <= 28.856\ngini = 0.076\nsamples = 126\nvalue = [5, 121]\nclass = Survived", fillcolor="#41a1e6"] ;
8 -> 9 ;
10 [label="gini = 0.168\nsamples = 54\nvalue = [5, 49]\nclass = Survived", fillcolor="#4da7e8"] ;
9 -> 10 ;
11 [label="gini = 0.0\nsamples = 72\nvalue = [0, 72]\nclass = Survived", fillcolor="#399de5"] ;
9 -> 11 ;
12 [label="Fare <= 23.35\ngini = 0.5\nsamples = 113\nvalue = [56, 57]\nclass = Survived", fillcolor="#fcfdff"] ;
8 -> 12 ;
13 [label="gini = 0.475\nsamples = 90\nvalue = [35, 55]\nclass = Survived", fillcolor="#b7dbf6"] ;
12 -> 13 ;
14 [label="gini = 0.159\nsamples = 23\nvalue = [21, 2]\nclass = Died", fillcolor="#e78d4c"] ;
12 -> 14 ;
}